digraph Tree {
node [shape=box, style="filled, rounded", color="black", fontname=helvetica] ;
edge [fontname=helvetica] ;
0 [label="sepal length (cm) <= 5.45\ngini = 0.67\nsamples = 99\nvalue = [50, 47, 53]\nclass = virginica", fillcolor="#fbf9fe"] ;
1 [label="petal length (cm) <= 2.45\ngini = 0.26\nsamples = 36\nvalue = [45, 8, 0]\nclass = setosa", fillcolor="#ea975c"] ;
0 -> 1 [labeldistance=2.5, labelangle=45, headlabel="True"] ;
2 [label="gini = 0.0\nsamples = 31\nvalue = [45, 0, 0]\nclass = setosa", fillcolor="#e58139"] ;
1 -> 2 ;
3 [label="gini = 0.0\nsamples = 5\nvalue = [0, 8, 0]\nclass = versicolor", fillcolor="#39e581"] ;
1 -> 3 ;
4 [label="petal length (cm) <= 4.85\ngini = 0.54\nsamples = 63\nvalue = [5, 39, 53]\nclass = virginica", fillcolor="#e1cff9"] ;
0 -> 4 [labeldistance=2.5, labelangle=-45, headlabel="False"] ;
5 [label="petal width (cm) <= 0.7\ngini = 0.28\nsamples = 28\nvalue = [5, 37, 2]\nclass = versicolor", fillcolor="#5dea98"] ;
4 -> 5 ;
6 [label="gini = 0.0\nsamples = 3\nvalue = [5, 0, 0]\nclass = setosa", fillcolor="#e58139"] ;
5 -> 6 ;
7 [label="petal length (cm) <= 4.75\ngini = 0.1\nsamples = 25\nvalue = [0, 37, 2]\nclass = versicolor", fillcolor="#44e688"] ;
5 -> 7 ;
8 [label="gini = 0.0\nsamples = 23\nvalue = [0, 35, 0]\nclass = versicolor", fillcolor="#39e581"] ;
7 -> 8 ;
9 [label="sepal length (cm) <= 5.95\ngini = 0.5\nsamples = 2\nvalue = [0, 2, 2]\nclass = versicolor", fillcolor="#ffffff"] ;
7 -> 9 ;
10 [label="gini = 0.0\nsamples = 1\nvalue = [0, 2, 0]\nclass = versicolor", fillcolor="#39e581"] ;
9 -> 10 ;
11 [label="gini = 0.0\nsamples = 1\nvalue = [0, 0, 2]\nclass = virginica", fillcolor="#8139e5"] ;
9 -> 11 ;
12 [label="sepal width (cm) <= 2.55\ngini = 0.07\nsamples = 35\nvalue = [0, 2, 51]\nclass = virginica", fillcolor="#8641e6"] ;
4 -> 12 ;
13 [label="petal length (cm) <= 4.95\ngini = 0.28\nsamples = 5\nvalue = [0, 1, 5]\nclass = virginica", fillcolor="#9a61ea"] ;
12 -> 13 ;
14 [label="gini = 0.0\nsamples = 1\nvalue = [0, 1, 0]\nclass = versicolor", fillcolor="#39e581"] ;
13 -> 14 ;
15 [label="gini = 0.0\nsamples = 4\nvalue = [0, 0, 5]\nclass = virginica", fillcolor="#8139e5"] ;
13 -> 15 ;
16 [label="petal width (cm) <= 1.75\ngini = 0.04\nsamples = 30\nvalue = [0, 1, 46]\nclass = virginica", fillcolor="#843de6"] ;
12 -> 16 ;
17 [label="petal width (cm) <= 1.65\ngini = 0.44\nsamples = 3\nvalue = [0, 1, 2]\nclass = virginica", fillcolor="#c09cf2"] ;
16 -> 17 ;
18 [label="gini = 0.0\nsamples = 2\nvalue = [0, 0, 2]\nclass = virginica", fillcolor="#8139e5"] ;
17 -> 18 ;
19 [label="gini = 0.0\nsamples = 1\nvalue = [0, 1, 0]\nclass = versicolor", fillcolor="#39e581"] ;
17 -> 19 ;
20 [label="gini = 0.0\nsamples = 27\nvalue = [0, 0, 44]\nclass = virginica", fillcolor="#8139e5"] ;
16 -> 20 ;
}